digraph Tree {
node [shape=box, style="filled, rounded", color="black", fontname="helvetica"] ;
edge [fontname="helvetica"] ;
0 [label="genreEncoded <= 2.5\nentropy = 1.0\nsamples = 635\nvalue = [494.0, 493.5]\nclass = No", fillcolor="#ffffff"] ;
1 [label="genreEncoded <= 1.5\nentropy = 0.574\nsamples = 232\nvalue = [222, 35]\nclass = No", fillcolor="#e99558"] ;
0 -> 1 [labeldistance=2.5, labelangle=45, headlabel="True"] ;
2 [label="moodEncoded <= 5.5\nentropy = 0.765\nsamples = 119\nvalue = [110.0, 31.5]\nclass = No", fillcolor="#eca572"] ;
1 -> 2 ;
3 [label="moodEncoded <= 2.5\nentropy = 0.63\nsamples = 98\nvalue = [93.0, 17.5]\nclass = No", fillcolor="#ea995e"] ;
2 -> 3 ;
4 [label="entropy = 0.989\nsamples = 11\nvalue = [9, 7]\nclass = No", fillcolor="#f9e3d3"] ;
3 -> 4 ;
5 [label="entropy = 0.503\nsamples = 87\nvalue = [84.0, 10.5]\nclass = No", fillcolor="#e89152"] ;
3 -> 5 ;
6 [label="durationEncoded <= 2.5\nentropy = 0.993\nsamples = 21\nvalue = [17, 14]\nclass = No", fillcolor="#fae9dc"] ;
2 -> 6 ;
7 [label="entropy = 0.831\nsamples = 9\nvalue = [5, 14]\nclass = N1Billboard", fillcolor="#80c0ee"] ;
6 -> 7 ;
8 [label="entropy = 0.0\nsamples = 12\nvalue = [12, 0]\nclass = No", fillcolor="#e58139"] ;
6 -> 8 ;
9 [label="edadEncoded <= 1.5\nentropy = 0.196\nsamples = 113\nvalue = [112.0, 3.5]\nclass = No", fillcolor="#e6853f"] ;
1 -> 9 ;
10 [label="durationEncoded <= 2.5\nentropy = 0.624\nsamples = 20\nvalue = [19.0, 3.5]\nclass = No", fillcolor="#ea985d"] ;
9 -> 10 ;
11 [label="entropy = 0.918\nsamples = 8\nvalue = [7.0, 3.5]\nclass = No", fillcolor="#f2c09c"] ;
10 -> 11 ;
12 [label="entropy = 0.0\nsamples = 12\nvalue = [12, 0]\nclass = No", fillcolor="#e58139"] ;
10 -> 12 ;
13 [label="entropy = 0.0\nsamples = 93\nvalue = [93, 0]\nclass = No", fillcolor="#e58139"] ;
9 -> 13 ;
14 [label="artist_typeEncoded <= 2.5\nentropy = 0.952\nsamples = 403\nvalue = [272.0, 458.5]\nclass = N1Billboard", fillcolor="#aed7f4"] ;
0 -> 14 [labeldistance=2.5, labelangle=-45, headlabel="False"] ;
15 [label="edadEncoded <= 2.5\nentropy = 0.871\nsamples = 183\nvalue = [108.0, 262.5]\nclass = N1Billboard", fillcolor="#8ac5f0"] ;
14 -> 15 ;
16 [label="genreEncoded <= 3.5\nentropy = 0.795\nsamples = 120\nvalue = [63.0, 199.5]\nclass = N1Billboard", fillcolor="#78bced"] ;
15 -> 16 ;
17 [label="entropy = 0.876\nsamples = 79\nvalue = [47, 112]\nclass = N1Billboard", fillcolor="#8cc6f0"] ;
16 -> 17 ;
18 [label="entropy = 0.621\nsamples = 41\nvalue = [16.0, 87.5]\nclass = N1Billboard", fillcolor="#5dafea"] ;
16 -> 18 ;
19 [label="artist_typeEncoded <= 1.5\nentropy = 0.98\nsamples = 63\nvalue = [45, 63]\nclass = N1Billboard", fillcolor="#c6e3f8"] ;
15 -> 19 ;
20 [label="entropy = 0.881\nsamples = 25\nvalue = [15, 35]\nclass = N1Billboard", fillcolor="#8ec7f0"] ;
19 -> 20 ;
21 [label="entropy = 0.999\nsamples = 38\nvalue = [30, 28]\nclass = No", fillcolor="#fdf7f2"] ;
19 -> 21 ;
22 [label="edadEncoded <= 3.5\nentropy = 0.994\nsamples = 220\nvalue = [164, 196]\nclass = N1Billboard", fillcolor="#dfeffb"] ;
14 -> 22 ;
23 [label="moodEncoded <= 3.5\nentropy = 0.988\nsamples = 208\nvalue = [152, 196]\nclass = N1Billboard", fillcolor="#d3e9f9"] ;
22 -> 23 ;
24 [label="entropy = 0.977\nsamples = 72\nvalue = [60, 42]\nclass = No", fillcolor="#f7d9c4"] ;
23 -> 24 ;
25 [label="entropy = 0.954\nsamples = 136\nvalue = [92, 154]\nclass = N1Billboard", fillcolor="#afd8f5"] ;
23 -> 25 ;
26 [label="entropy = 0.0\nsamples = 12\nvalue = [12, 0]\nclass = No", fillcolor="#e58139"] ;
22 -> 26 ;
}